{
  "type": "LSTM",
  "options": {
    "inputSize": 26,
    "inputRange": 26,
    "hiddenLayers": [
      20,
      20
    ],
    "outputSize": 26,
    "decayRate": 0.999,
    "smoothEps": 1e-8,
    "regc": 0.000001,
    "clipval": 5,
    "maxPredictionLength": 100,
    "dataFormatter": {
      "values": [
        "abelisaurus",
        "achelousaurus",
        "achillobator",
        "acrocanthosaurus",
        "aegyptosaurus",
        "afrovenator",
        "agilisaurus",
        "alamosaurus",
        "albertaceratops",
        "albertosaurus",
        "alectrosaurus",
        "alioramus",
        "allosaurus",
        "alvarezsaurus",
        "amargasaurus",
        "ammosaurus",
        "ampelosaurus",
        "amygdalodon",
        "anchiceratops",
        "anchisaurus",
        "ankylosaurus",
        "anserimimus",
        "antarctosaurus",
        "apatosaurus",
        "aragosaurus",
        "aralosaurus",
        "archaeoceratops",
        "archaeopteryx",
        "archaeornithomimus",
        "argentinosaurus",
        "arrhinoceratops",
        "atlascopcosaurus",
        "aucasaurus",
        "austrosaurus",
        "avaceratops",
        "avimimus",
        "bactrosaurus",
        "bagaceratops",
        "bambiraptor",
        "barapasaurus",
        "barosaurus",
        "baryonyx",
        "becklespinax",
        "beipiaosaurus",
        "bellusaurus",
        "borogovia",
        "brachiosaurus",
        "brachylophosaurus",
        "brachytrachelopan",
        "buitreraptor",
        "camarasaurus",
        "camptosaurus",
        "carcharodontosaurus",
        "carnotaurus",
        "caudipteryx",
        "cedarpelta",
        "centrosaurus",
        "ceratosaurus",
        "cetiosauriscus",
        "cetiosaurus",
        "chaoyangsaurus",
        "chasmosaurus",
        "chindesaurus",
        "chinshakiangosaurus",
        "chirostenotes",
        "chubutisaurus",
        "chungkingosaurus",
        "citipati",
        "coelophysis",
        "coelurus",
        "coloradisaurus",
        "compsognathus",
        "conchoraptor",
        "confuciusornis",
        "corythosaurus",
        "cryolophosaurus",
        "dacentrurus",
        "daspletosaurus",
        "datousaurus",
        "deinocheirus",
        "deinonychus",
        "deltadromeus",
        "dicraeosaurus",
        "dilophosaurus",
        "diplodocus",
        "dromaeosaurus",
        "dromiceiomimus",
        "dryosaurus",
        "dryptosaurus",
        "dubreuillosaurus",
        "edmontonia",
        "edmontosaurus",
        "einiosaurus",
        "elaphrosaurus",
        "emausaurus",
        "eolambia",
        "eoraptor",
        "eotyrannus",
        "equijubus",
        "erketu",
        "erlikosaurus",
        "euhelopus",
        "euoplocephalus",
        "europasaurus",
        "eustreptospondylus",
        "fukuiraptor",
        "fukuisaurus",
        "gallimimus",
        "gargoyleosaurus",
        "garudimimus",
        "gasosaurus",
        "gasparinisaura",
        "gastonia",
        "giganotosaurus",
        "gilmoreosaurus",
        "giraffatitan",
        "gobisaurus",
        "gorgosaurus",
        "goyocephale",
        "graciliceratops",
        "gryposaurus",
        "guaibasaurus",
        "guanlong",
        "hadrosaurus",
        "hagryphus",
        "haplocanthosaurus",
        "harpymimus",
        "herrerasaurus",
        "hesperosaurus",
        "heterodontosaurus",
        "heyuannia",
        "homalocephale",
        "huayangosaurus",
        "hylaeosaurus",
        "hypacrosaurus",
        "hypsilophodon",
        "iguanodon",
        "indosuchus",
        "irritator"
      ],
      "indexTable": {
        "a": 0,
        "b": 1,
        "e": 2,
        "l": 3,
        "i": 4,
        "s": 5,
        "u": 6,
        "r": 7,
        "c": 8,
        "h": 9,
        "o": 10,
        "t": 11,
        "n": 12,
        "g": 13,
        "y": 14,
        "p": 15,
        "f": 16,
        "v": 17,
        "m": 18,
        "z": 19,
        "d": 20,
        "k": 21,
        "x": 22,
        "q": 23,
        "j": 24,
        "unrecognized": 25
      },
      "characterTable": {
        "0": "a",
        "1": "b",
        "2": "e",
        "3": "l",
        "4": "i",
        "5": "s",
        "6": "u",
        "7": "r",
        "8": "c",
        "9": "h",
        "10": "o",
        "11": "t",
        "12": "n",
        "13": "g",
        "14": "y",
        "15": "p",
        "16": "f",
        "17": "v",
        "18": "m",
        "19": "z",
        "20": "d",
        "21": "k",
        "22": "x",
        "23": "q",
        "24": "j",
        "25": null
      },
      "characters": [
        "a",
        "b",
        "e",
        "l",
        "i",
        "s",
        "u",
        "r",
        "c",
        "h",
        "o",
        "t",
        "n",
        "g",
        "y",
        "p",
        "f",
        "v",
        "m",
        "z",
        "d",
        "k",
        "x",
        "q",
        "j",
        "unrecognized"
      ],
      "specialIndexes": [
        25
      ]
    }
  },
  "input": {
    "rows": 27,
    "columns": 26,
    "weights": {
      "0": -2.14992094039917,
      "1": 0.47119951248168945,
      "2": -2.167088270187378,
      "3": 0.3273202180862427,
      "4": 0.35925519466400146,
      "5": -0.5646365284919739,
      "6": -2.485700845718384,
      "7": -0.06194470822811127,
      "8": 1.5009617805480957,
      "9": -0.9642664194107056,
      "10": 0.6808941960334778,
      "11": 2.061687707901001,
      "12": 2.575342893600464,
      "13": -1.5309978723526,
      "14": 0.941926896572113,
      "15": 0.08172589540481567,
      "16": 1.5528254508972168,
      "17": 1.4852949380874634,
      "18": 0.6657424569129944,
      "19": 0.25987815856933594,
      "20": -0.6089397668838501,
      "21": 1.2274396419525146,
      "22": 0.5158169269561768,
      "23": 0.6570335626602173,
      "24": -0.022751513868570328,
      "25": -1.6242033243179321,
      "26": -0.06847300380468369,
      "27": 0.4414578378200531,
      "28": 1.327627182006836,
      "29": 0.22815664112567902,
      "30": -0.36711952090263367,
      "31": 1.7146915197372437,
      "32": -1.0604280233383179,
      "33": -0.13690537214279175,
      "34": 0.5277780890464783,
      "35": -0.015890898182988167,
      "36": -2.372678279876709,
      "37": -0.35429131984710693,
      "38": -0.12606565654277802,
      "39": -0.24507451057434082,
      "40": -0.0874190405011177,
      "41": -0.43248575925827026,
      "42": 0.46603596210479736,
      "43": -0.260127454996109,
      "44": 0.7263086438179016,
      "45": -0.16593220829963684,
      "46": 0.39742130041122437,
      "47": -1.1010202169418335,
      "48": -0.2047821581363678,
      "49": -0.04759575426578522,
      "50": -1.0942970514297485,
      "51": -0.4324567914009094,
      "52": -8.340030670166016,
      "53": 7.157477378845215,
      "54": 0.8568351864814758,
      "55": 7.146775245666504,
      "56": 3.544618844985962,
      "57": 18.595745086669922,
      "58": -7.354734420776367,
      "59": -5.410345077514648,
      "60": -0.9605859518051147,
      "61": -2.8594791889190674,
      "62": 13.297370910644531,
      "63": -7.332563877105713,
      "64": -2.857961654663086,
      "65": -9.293107986450195,
      "66": -8.637421607971191,
      "67": -7.974004745483398,
      "68": 8.062888145446777,
      "69": -1.5714550018310547,
      "70": 3.088796615600586,
      "71": 4.257626533508301,
      "72": 12.466980934143066,
      "73": -3.448464870452881,
      "74": 6.019416332244873,
      "75": 0.930580198764801,
      "76": -0.36587217450141907,
      "77": 0.012771681882441044,
      "78": 2.861069679260254,
      "79": -2.1371452808380127,
      "80": 3.042633533477783,
      "81": -6.163488864898682,
      "82": -0.1723100244998932,
      "83": -4.436255931854248,
      "84": 2.40982985496521,
      "85": -0.9784392714500427,
      "86": 2.637509346008301,
      "87": -1.0253826379776,
      "88": -2.264024496078491,
      "89": 1.3675779104232788,
      "90": 0.9815852046012878,
      "91": 2.567754030227661,
      "92": -2.80665922164917,
      "93": -2.0710196495056152,
      "94": -3.640824556350708,
      "95": -1.4920153617858887,
      "96": -1.6428622007369995,
      "97": 0.37342333793640137,
      "98": -0.7491442561149597,
      "99": 0.12627935409545898,
      "100": -1.2895711660385132,
      "101": 1.0700503587722778,
      "102": 1.8276076316833496,
      "103": -1.8806980848312378,
      "104": -10.433152198791504,
      "105": -7.805325984954834,
      "106": 7.334803104400635,
      "107": 7.270656108856201,
      "108": 8.785107612609863,
      "109": -4.826378345489502,
      "110": -7.318799018859863,
      "111": -9.049065589904785,
      "112": -5.143669128417969,
      "113": 6.147368907928467,
      "114": -10.45658016204834,
      "115": 4.041153907775879,
      "116": 7.80233097076416,
      "117": -2.5767598152160645,
      "118": -3.807561159133911,
      "119": -2.955099582672119,
      "120": -6.144617557525635,
      "121": -8.401092529296875,
      "122": -2.5853796005249023,
      "123": -2.6804816722869873,
      "124": -5.790757179260254,
      "125": -6.780785083770752,
      "126": -4.66697883605957,
      "127": -1.0494427680969238,
      "128": -0.6698352098464966,
      "129": 0.7669584155082703,
      "130": 3.940352201461792,
      "131": 0.2537998855113983,
      "132": 15.96811580657959,
      "133": -5.041285991668701,
      "134": 2.1576130390167236,
      "135": -1.3367698192596436,
      "136": 1.01047945022583,
      "137": -3.056344985961914,
      "138": -3.334810256958008,
      "139": 3.922288656234741,
      "140": -3.29257869720459,
      "141": -0.08020474761724472,
      "142": -8.331533432006836,
      "143": 4.456518650054932,
      "144": 2.6480185985565186,
      "145": -4.649019241333008,
      "146": 5.135681629180908,
      "147": -1.5884230136871338,
      "148": 4.154437065124512,
      "149": 3.4623653888702393,
      "150": 4.172138690948486,
      "151": 3.5736868381500244,
      "152": 2.1616406440734863,
      "153": -3.229586362838745,
      "154": 1.2892935276031494,
      "155": -3.882730007171631,
      "156": 1.6269536018371582,
      "157": -3.6925182342529297,
      "158": 7.106482982635498,
      "159": -1.3682410717010498,
      "160": -3.537632942199707,
      "161": -1.1713453531265259,
      "162": -6.322040557861328,
      "163": 0.9642305970191956,
      "164": 2.5952796936035156,
      "165": -5.713614463806152,
      "166": -1.5835514068603516,
      "167": 3.2004990577697754,
      "168": 0.36226886510849,
      "169": 4.730480194091797,
      "170": 0.4064014256000519,
      "171": -4.6362199783325195,
      "172": 2.401232957839966,
      "173": -1.6126933097839355,
      "174": -1.630072832107544,
      "175": -0.4468662738800049,
      "176": -0.5146693587303162,
      "177": 4.732166290283203,
      "178": -3.3630051612854004,
      "179": 5.342796325683594,
      "180": -4.361783504486084,
      "181": 2.695028066635132,
      "182": -5.625646114349365,
      "183": -0.7187845706939697,
      "184": -1.2228658199310303,
      "185": -0.46379753947257996,
      "186": 4.582136154174805,
      "187": -4.467809200286865,
      "188": 3.4941253662109375,
      "189": -3.623883008956909,
      "190": 1.1313010454177856,
      "191": 1.085939884185791,
      "192": 1.261435627937317,
      "193": -1.4510349035263062,
      "194": -5.986403465270996,
      "195": -9.207371711730957,
      "196": 2.368834972381592,
      "197": 1.3965492248535156,
      "198": -4.245985507965088,
      "199": -0.3897389769554138,
      "200": -2.940445899963379,
      "201": -0.08967435359954834,
      "202": -3.0131356716156006,
      "203": -3.4398438930511475,
      "204": -0.06800669431686401,
      "205": 1.7290148735046387,
      "206": 8.567797660827637,
      "207": -1.4495410919189453,
      "208": -0.5562559366226196,
      "209": 0.39591434597969055,
      "210": 6.891791820526123,
      "211": 0.4590044617652893,
      "212": 1.1440484523773193,
      "213": -1.0513348579406738,
      "214": -0.41983163356781006,
      "215": -1.297777533531189,
      "216": -0.9047148823738098,
      "217": 0.12031909823417664,
      "218": 1.6322067975997925,
      "219": -1.7756279706954956,
      "220": 4.021612644195557,
      "221": -0.1746785193681717,
      "222": 2.8807356357574463,
      "223": 0.5378972291946411,
      "224": 2.520000457763672,
      "225": -0.7540498971939087,
      "226": -0.047659024596214294,
      "227": -1.0962201356887817,
      "228": 1.168285846710205,
      "229": -1.2792375087738037,
      "230": 0.8351922631263733,
      "231": -2.1098086833953857,
      "232": 0.7935863137245178,
      "233": 0.09176952391862869,
      "234": -1.6086069345474243,
      "235": -4.252481937408447,
      "236": 12.673526763916016,
      "237": 2.5627939701080322,
      "238": 0.6881527900695801,
      "239": -0.702899158000946,
      "240": -6.900086402893066,
      "241": -3.4317727088928223,
      "242": 4.363220691680908,
      "243": -7.543168544769287,
      "244": -4.932511329650879,
      "245": 2.795811414718628,
      "246": -7.331060409545898,
      "247": 0.7884676456451416,
      "248": 10.914073944091797,
      "249": -7.581724166870117,
      "250": 5.75103759765625,
      "251": 0.834349513053894,
      "252": -1.1701184511184692,
      "253": -3.90173602104187,
      "254": 1.5099478960037231,
      "255": 5.047325134277344,
      "256": -4.884247303009033,
      "257": 3.557560682296753,
      "258": -1.0322494506835938,
      "259": 7.507586479187012,
      "260": 4.848447322845459,
      "261": -7.138906478881836,
      "262": 0.5941707491874695,
      "263": 16.074478149414062,
      "264": -3.8903677463531494,
      "265": -1.3551346063613892,
      "266": -8.217916488647461,
      "267": 11.123469352722168,
      "268": 0.9119686484336853,
      "269": 3.2629551887512207,
      "270": -7.39836311340332,
      "271": 7.882111549377441,
      "272": 7.426210880279541,
      "273": 5.166569232940674,
      "274": -12.187747955322266,
      "275": 4.947734832763672,
      "276": -4.567606449127197,
      "277": 0.24313479661941528,
      "278": 0.6809917092323303,
      "279": 3.216912269592285,
      "280": -5.329050540924072,
      "281": 6.692739486694336,
      "282": -0.3827745020389557,
      "283": 4.629711151123047,
      "284": -13.390095710754395,
      "285": 0.2407909780740738,
      "286": 0.15283627808094025,
      "287": -1.1396620273590088,
      "288": 1.1201664209365845,
      "289": -0.1961568146944046,
      "290": 0.7687365412712097,
      "291": -1.5324326753616333,
      "292": 2.7535147666931152,
      "293": -0.03915537893772125,
      "294": -2.130021572113037,
      "295": -1.731147289276123,
      "296": 0.455253541469574,
      "297": 2.915775775909424,
      "298": 4.56292200088501,
      "299": 3.0979840755462646,
      "300": -1.2180697917938232,
      "301": 3.2804412841796875,
      "302": -4.458310604095459,
      "303": -0.5184249877929688,
      "304": -1.4598051309585571,
      "305": 0.19152022898197174,
      "306": -1.0766284465789795,
      "307": 2.2227466106414795,
      "308": 1.6352661848068237,
      "309": 4.176342964172363,
      "310": 1.892835259437561,
      "311": -0.4590117633342743,
      "312": 0.9159152507781982,
      "313": 2.4312386512756348,
      "314": 5.442497730255127,
      "315": 1.9844099283218384,
      "316": 9.828996658325195,
      "317": -1.9486650228500366,
      "318": 1.9550422430038452,
      "319": -0.6198893785476685,
      "320": 1.566810131072998,
      "321": -7.231772422790527,
      "322": -15.220880508422852,
      "323": 3.954707384109497,
      "324": 3.3860325813293457,
      "325": 0.8632695078849792,
      "326": 8.623180389404297,
      "327": 1.7707635164260864,
      "328": 1.7278087139129639,
      "329": 1.2302955389022827,
      "330": -6.066981792449951,
      "331": 0.6949641704559326,
      "332": 1.2997307777404785,
      "333": 5.007676124572754,
      "334": 6.715818881988525,
      "335": 4.664505958557129,
      "336": 1.1315020322799683,
      "337": 1.0796226263046265,
      "338": -6.666779041290283,
      "339": 3.0772743225097656,
      "340": 8.128095626831055,
      "341": -10.549895286560059,
      "342": 6.174068450927734,
      "343": -1.8067647218704224,
      "344": 7.564453125,
      "345": -5.038753032684326,
      "346": -3.0220439434051514,
      "347": -5.56688928604126,
      "348": 4.783251762390137,
      "349": 3.5928003787994385,
      "350": 1.577286720275879,
      "351": 0.04312555491924286,
      "352": 3.3353500366210938,
      "353": -2.404731512069702,
      "354": 4.944024562835693,
      "355": -6.389014720916748,
      "356": -0.47338756918907166,
      "357": -0.5050506591796875,
      "358": 1.3897035121917725,
      "359": 4.632598876953125,
      "360": 2.288344144821167,
      "361": 1.3546448945999146,
      "362": 2.912860870361328,
      "363": 5.370223045349121,
      "364": 2.3450663089752197,
      "365": 8.80434513092041,
      "366": 5.238178253173828,
      "367": 10.40632438659668,
      "368": 2.2421908378601074,
      "369": -11.106112480163574,
      "370": -1.5929920673370361,
      "371": 0.548267662525177,
      "372": -9.329063415527344,
      "373": -1.1893640756607056,
      "374": 2.488646984100342,
      "375": 2.9539310932159424,
      "376": 4.515851020812988,
      "377": -10.755535125732422,
      "378": 10.727065086364746,
      "379": 5.264340400695801,
      "380": 6.512197494506836,
      "381": -5.936713695526123,
      "382": -14.5091552734375,
      "383": 1.9750714302062988,
      "384": -10.80735969543457,
      "385": 3.9503262042999268,
      "386": -4.061627388000488,
      "387": 0.5428717732429504,
      "388": 14.671780586242676,
      "389": 2.017428398132324,
      "390": 8.426255226135254,
      "391": -11.145064353942871,
      "392": 6.644740581512451,
      "393": -4.949970245361328,
      "394": 1.2591091394424438,
      "395": -7.764963150024414,
      "396": -9.75397777557373,
      "397": 8.54799747467041,
      "398": 4.932434558868408,
      "399": -10.921015739440918,
      "400": -2.93699049949646,
      "401": 2.999842405319214,
      "402": -0.3822571337223053,
      "403": 6.695293426513672,
      "404": -4.391571521759033,
      "405": -11.774007797241211,
      "406": -0.06951753795146942,
      "407": -0.9379322528839111,
      "408": 1.2042633295059204,
      "409": 3.554567575454712,
      "410": -5.336633205413818,
      "411": 7.231950759887695,
      "412": 1.632934808731079,
      "413": 4.436201572418213,
      "414": -4.854888916015625,
      "415": -5.902547359466553,
      "416": -0.14381004869937897,
      "417": 7.097274303436279,
      "418": -17.851219177246094,
      "419": -5.077767848968506,
      "420": -0.6484965085983276,
      "421": 6.284041404724121,
      "422": -1.4688851833343506,
      "423": -5.279853343963623,
      "424": 2.90507173538208,
      "425": 3.2656397819519043,
      "426": -0.8068470358848572,
      "427": 1.048640251159668,
      "428": -2.7811076641082764,
      "429": -5.637501239776611,
      "430": -4.497436046600342,
      "431": 3.2784616947174072,
      "432": -0.30854105949401855,
      "433": 2.7387564182281494,
      "434": 9.017576217651367,
      "435": -1.6948293447494507,
      "436": -0.17828141152858734,
      "437": 4.875725269317627,
      "438": -4.116007328033447,
      "439": 0.6318467855453491,
      "440": -4.229753494262695,
      "441": -5.243391513824463,
      "442": -8.52532958984375,
      "443": 6.087504863739014,
      "444": -31.62474822998047,
      "445": 17.86972427368164,
      "446": 8.728755950927734,
      "447": 17.83920669555664,
      "448": -17.312959671020508,
      "449": -15.586329460144043,
      "450": -25.253623962402344,
      "451": -8.716011047363281,
      "452": 4.821493148803711,
      "453": -0.9848829507827759,
      "454": 24.319660186767578,
      "455": 2.003915309906006,
      "456": -0.3087928295135498,
      "457": -15.796368598937988,
      "458": 4.782583713531494,
      "459": 6.565698623657227,
      "460": 10.005324363708496,
      "461": -7.251791477203369,
      "462": 7.987757205963135,
      "463": 16.657339096069336,
      "464": -18.529661178588867,
      "465": -17.957029342651367,
      "466": -21.194406509399414,
      "467": 11.45944595336914,
      "468": -4.366347789764404,
      "469": -10.48652172088623,
      "470": 19.657567977905273,
      "471": -18.983367919921875,
      "472": 14.813677787780762,
      "473": 6.215293884277344,
      "474": -11.096901893615723,
      "475": -13.07311725616455,
      "476": -20.278522491455078,
      "477": -5.246419906616211,
      "478": -4.663637161254883,
      "479": 15.734034538269043,
      "480": 11.431384086608887,
      "481": 3.235001802444458,
      "482": -13.014687538146973,
      "483": -10.981559753417969,
      "484": 5.476785182952881,
      "485": -14.328102111816406,
      "486": 9.494536399841309,
      "487": 6.434843063354492,
      "488": 11.901678085327148,
      "489": 3.6481783390045166,
      "490": 12.59505844116211,
      "491": 22.07579231262207,
      "492": -0.05140215530991554,
      "493": 4.2241668701171875,
      "494": 1.9576311111450195,
      "495": -11.175508499145508,
      "496": 0.49228203296661377,
      "497": -7.465848922729492,
      "498": 5.267456531524658,
      "499": 0.7306928634643555,
      "500": -12.198570251464844,
      "501": 0.9520580172538757,
      "502": 1.105472207069397,
      "503": 2.206639289855957,
      "504": -3.4509637355804443,
      "505": 5.08051872253418,
      "506": -10.370953559875488,
      "507": -6.9578680992126465,
      "508": 15.169513702392578,
      "509": -11.285636901855469,
      "510": 9.971503257751465,
      "511": -3.1598141193389893,
      "512": 5.070606231689453,
      "513": -5.1591901779174805,
      "514": 2.595276355743408,
      "515": -5.048223495483398,
      "516": -9.590846061706543,
      "517": 7.6274285316467285,
      "518": -2.3920247554779053,
      "519": -5.574845790863037,
      "520": -41.462406158447266,
      "521": -29.48476219177246,
      "522": -13.204998970031738,
      "523": 41.885372161865234,
      "524": 55.83897018432617,
      "525": -16.301776885986328,
      "526": -12.073344230651855,
      "527": -19.591676712036133,
      "528": 12.75187873840332,
      "529": 46.601600646972656,
      "530": 9.449951171875,
      "531": -13.888947486877441,
      "532": -34.85884094238281,
      "533": 2.2469043731689453,
      "534": 0.22596070170402527,
      "535": 32.39326477050781,
      "536": -46.98739242553711,
      "537": 8.743914604187012,
      "538": -3.709503173828125,
      "539": 3.7344930171966553,
      "540": -19.60466194152832,
      "541": -43.493080139160156,
      "542": 7.901523113250732,
      "543": -26.653667449951172,
      "544": -0.7532284259796143,
      "545": -18.400413513183594,
      "546": 3.0105361938476562,
      "547": -4.624134540557861,
      "548": -8.264050483703613,
      "549": 6.2054243087768555,
      "550": 0.5081648826599121,
      "551": -19.646488189697266,
      "552": 9.185018539428711,
      "553": 13.30693531036377,
      "554": -3.0796031951904297,
      "555": -14.767972946166992,
      "556": -1.5589221715927124,
      "557": -1.8418768644332886,
      "558": 4.099453449249268,
      "559": -2.305368185043335,
      "560": 26.483028411865234,
      "561": -0.8050357699394226,
      "562": 1.7813727855682373,
      "563": 10.173489570617676,
      "564": -18.57450294494629,
      "565": -8.52058219909668,
      "566": -15.279632568359375,
      "567": 1.319785237312317,
      "568": -7.728997230529785,
      "569": -1.8626874685287476,
      "570": 16.856935501098633,
      "571": 1.334308385848999,
      "572": -19.672401428222656,
      "573": -18.937902450561523,
      "574": 8.9586181640625,
      "575": 4.315515041351318,
      "576": 17.195531845092773,
      "577": 6.552297592163086,
      "578": -11.327773094177246,
      "579": 12.650630950927734,
      "580": 11.473129272460938,
      "581": -10.14205265045166,
      "582": 14.269715309143066,
      "583": -6.477843284606934,
      "584": -4.220303535461426,
      "585": -9.179756164550781,
      "586": 7.281175136566162,
      "587": -23.842613220214844,
      "588": 5.8099470138549805,
      "589": 23.714624404907227,
      "590": 7.3593034744262695,
      "591": 4.679360389709473,
      "592": 13.583318710327148,
      "593": -7.373685836791992,
      "594": 4.405757904052734,
      "595": -9.793041229248047,
      "596": -14.779837608337402,
      "597": 3.6718151569366455,
      "598": 23.4957218170166,
      "599": -4.619722366333008,
      "600": 0.18197683990001678,
      "601": 9.514399528503418,
      "602": -5.44331693649292,
      "603": -6.220922470092773,
      "604": -37.01189041137695,
      "605": -17.441980361938477,
      "606": -12.796703338623047,
      "607": 7.641503810882568,
      "608": 30.320947647094727,
      "609": -18.804359436035156,
      "610": -4.558925151824951,
      "611": -15.875075340270996,
      "612": 8.228294372558594,
      "613": -24.512100219726562,
      "614": 9.851597785949707,
      "615": -16.23788833618164,
      "616": 12.546538352966309,
      "617": -9.96161937713623,
      "618": -1.3328136205673218,
      "619": -35.96284484863281,
      "620": -7.060011386871338,
      "621": -17.641633987426758,
      "622": 25.378816604614258,
      "623": -20.523204803466797,
      "624": 8.543463706970215,
      "625": 12.63068675994873,
      "626": 44.276248931884766,
      "627": 23.449472427368164,
      "628": -30.02018165588379,
      "629": -1.672125220298767,
      "630": 7.52427339553833,
      "631": 73.7075424194336,
      "632": 8.697250366210938,
      "633": 12.04189395904541,
      "634": 10.728167533874512,
      "635": 25.86781120300293,
      "636": 21.83106803894043,
      "637": -20.03170394897461,
      "638": 8.282546997070312,
      "639": 28.047311782836914,
      "640": -20.731374740600586,
      "641": -21.814807891845703,
      "642": 33.1760139465332,
      "643": -17.41827392578125,
      "644": 6.6994829177856445,
      "645": 23.26017189025879,
      "646": 38.52167510986328,
      "647": 8.249326705932617,
      "648": -1.2178374528884888,
      "649": 17.283601760864258,
      "650": 5.6219000816345215,
      "651": -37.287330627441406,
      "652": -24.917236328125,
      "653": 60.24026870727539,
      "654": -21.620628356933594,
      "655": -10.114286422729492,
      "656": -60.05034637451172,
      "657": -0.6404980421066284,
      "658": -29.8573055267334,
      "659": -19.370698928833008,
      "660": -46.72188186645508,
      "661": 65.41464233398438,
      "662": 0.5785946846008301,
      "663": 6.905351161956787,
      "664": -40.0480842590332,
      "665": 14.17050838470459,
      "666": -37.105281829833984,
      "667": -10.42539119720459,
      "668": 45.735145568847656,
      "669": 32.8907356262207,
      "670": -21.0341854095459,
      "671": -1.988953948020935,
      "672": -55.97496795654297,
      "673": 21.37479019165039,
      "674": -13.972505569458008,
      "675": 8.22666072845459,
      "676": 0.06408298760652542,
      "677": -0.03169848769903183,
      "678": -0.014526138082146645,
      "679": -0.018030110746622086,
      "680": 0.04573063924908638,
      "681": 0.0037595732137560844,
      "682": 0.06887517869472504,
      "683": -0.03472808375954628,
      "684": 0.05040893703699112,
      "685": 0.01929045468568802,
      "686": -0.0518520250916481,
      "687": 0.020987536758184433,
      "688": 0.05334904044866562,
      "689": 0.01727362349629402,
      "690": -0.02943551354110241,
      "691": 0.0010736656840890646,
      "692": -0.0018536080606281757,
      "693": 0.011956238187849522,
      "694": 0.006181383039802313,
      "695": 0.03745293244719505,
      "696": -0.04364824295043945,
      "697": 0.048312004655599594,
      "698": 0.056545138359069824,
      "699": -0.006763782352209091,
      "700": 0.042190756648778915,
      "701": -0.047835543751716614
    }
  },
  "hiddenLayers": [
    {
      "inputMatrix": {
        "rows": 20,
        "columns": 26,
        "weights": {
          "0": -3.6029651165008545,
          "1": 2.0129191875457764,
          "2": 4.160317420959473,
          "3": -1.4872621297836304,
          "4": 2.503066062927246,
          "5": 1.7532625198364258,
          "6": 2.483745813369751,
          "7": -3.8493857383728027,
          "8": -1.6083307266235352,
          "9": 1.0897397994995117,
          "10": -2.978001594543457,
          "11": -0.8466741442680359,
          "12": 2.0953547954559326,
          "13": 3.1309292316436768,
          "14": 1.133866310119629,
          "15": 3.5532708168029785,
          "16": -0.6696804165840149,
          "17": -1.9559173583984375,
          "18": -0.18006303906440735,
          "19": 2.2581911087036133,
          "20": -0.9408371448516846,
          "21": -1.474941372871399,
          "22": 0.46458879113197327,
          "23": -0.6655475497245789,
          "24": 0.44956350326538086,
          "25": -0.11758138984441757,
          "26": -1.1856297254562378,
          "27": 0.18879662454128265,
          "28": -0.10343945026397705,
          "29": 0.5626729726791382,
          "30": 0.09110645204782486,
          "31": 0.11794167757034302,
          "32": -0.3515702486038208,
          "33": -0.1870899200439453,
          "34": -1.4900723695755005,
          "35": -0.0401352159678936,
          "36": -1.414764404296875,
          "37": 1.1000406742095947,
          "38": 0.7519647479057312,
          "39": 0.8519555330276489,
          "40": 1.1624126434326172,
          "41": 0.6740666031837463,
          "42": -1.428903579711914,
          "43": -0.4041648209095001,
          "44": -0.38666754961013794,
          "45": 0.26307085156440735,
          "46": -0.41005340218544006,
          "47": 1.1102226972579956,
          "48": 0.21962809562683105,
          "49": 0.7603922486305237,
          "50": -0.05093510076403618,
          "51": -0.36518821120262146,
          "52": -0.12631002068519592,
          "53": -0.8431769609451294,
          "54": -1.958156704902649,
          "55": -0.4537278115749359,
          "56": 1.7947975397109985,
          "57": -1.6729967594146729,
          "58": -0.3649649918079376,
          "59": -1.8482508659362793,
          "60": -0.45051780343055725,
          "61": 2.992109537124634,
          "62": 2.2603113651275635,
          "63": -0.29511702060699463,
          "64": -0.39899903535842896,
          "65": -3.9662835597991943,
          "66": -0.035313885658979416,
          "67": -0.4816443920135498,
          "68": 1.8501722812652588,
          "69": 0.7602035403251648,
          "70": -2.1156697273254395,
          "71": -0.592825710773468,
          "72": -0.682467520236969,
          "73": -0.8199184536933899,
          "74": -1.0929863452911377,
          "75": -1.2093541622161865,
          "76": 0.7862664461135864,
          "77": -0.6072533130645752,
          "78": -1.3558918237686157,
          "79": -0.6983209848403931,
          "80": -2.428305149078369,
          "81": 0.4586012363433838,
          "82": 1.7950667142868042,
          "83": 1.0544254779815674,
          "84": 0.7680525183677673,
          "85": -0.21007047593593597,
          "86": -1.24357008934021,
          "87": 1.6863739490509033,
          "88": 1.1196812391281128,
          "89": -0.23004388809204102,
          "90": -1.9580552577972412,
          "91": -0.5092503428459167,
          "92": -0.3081744909286499,
          "93": 2.814532518386841,
          "94": -0.9281890988349915,
          "95": 2.485949993133545,
          "96": 0.08283933252096176,
          "97": 0.6841732859611511,
          "98": -0.48898211121559143,
          "99": 0.6363140940666199,
          "100": 1.0253589153289795,
          "101": -0.048930488526821136,
          "102": -2.163130283355713,
          "103": -1.7444701194763184,
          "104": -4.367082118988037,
          "105": 2.8785080909729004,
          "106": 0.7631057500839233,
          "107": 2.165802478790283,
          "108": 2.139073371887207,
          "109": 2.339982271194458,
          "110": -1.2953447103500366,
          "111": -2.4535322189331055,
          "112": -0.7753047347068787,
          "113": 3.509364128112793,
          "114": -3.822155237197876,
          "115": -0.09418916702270508,
          "116": 1.363950252532959,
          "117": 1.1077313423156738,
          "118": -0.8298363089561462,
          "119": 2.6240153312683105,
          "120": 0.8767465353012085,
          "121": 1.26596200466156,
          "122": 0.23969048261642456,
          "123": 2.3393490314483643,
          "124": -0.6622795462608337,
          "125": 2.075666666030884,
          "126": 0.2905716001987457,
          "127": -0.6613438129425049,
          "128": -1.7696763277053833,
          "129": -0.8120104670524597,
          "130": 2.0904626846313477,
          "131": 1.7408808469772339,
          "132": 0.4308761656284332,
          "133": 1.5648516416549683,
          "134": -2.3669943809509277,
          "135": -1.9218913316726685,
          "136": 3.9783153533935547,
          "137": 2.095884084701538,
          "138": 1.7291916608810425,
          "139": 2.376629114151001,
          "140": 1.378582239151001,
          "141": -1.0979973077774048,
          "142": -0.4385741949081421,
          "143": 0.06844376027584076,
          "144": -0.8795766830444336,
          "145": 1.9505199193954468,
          "146": -2.549497604370117,
          "147": -1.3841322660446167,
          "148": -2.306117296218872,
          "149": 0.37838247418403625,
          "150": -1.6035451889038086,
          "151": -2.2297203540802,
          "152": 2.2725257873535156,
          "153": 0.5840659737586975,
          "154": 0.8393692970275879,
          "155": -0.05081814154982567,
          "156": 1.070380687713623,
          "157": 1.200015664100647,
          "158": -1.1565806865692139,
          "159": -0.5508226156234741,
          "160": -0.19260479509830475,
          "161": 1.6910191774368286,
          "162": -1.2353299856185913,
          "163": -0.3099220395088196,
          "164": 0.9175338745117188,
          "165": 0.07341014593839645,
          "166": -2.4190311431884766,
          "167": 1.2568724155426025,
          "168": 3.4038267135620117,
          "169": 1.0486040115356445,
          "170": -1.2685890197753906,
          "171": 1.4794635772705078,
          "172": -1.426088809967041,
          "173": -1.6416875123977661,
          "174": 0.0739365816116333,
          "175": -0.13581803441047668,
          "176": -0.27372583746910095,
          "177": 0.9365891218185425,
          "178": -1.4443638324737549,
          "179": 1.4099862575531006,
          "180": -0.486926406621933,
          "181": -0.5906173586845398,
          "182": -0.7454364895820618,
          "183": 0.789756715297699,
          "184": -0.7698454856872559,
          "185": -0.43028318881988525,
          "186": -0.4942083954811096,
          "187": 1.0398136377334595,
          "188": -0.3375302255153656,
          "189": -0.5635015368461609,
          "190": -2.214677095413208,
          "191": 0.21897612512111664,
          "192": 0.452528715133667,
          "193": 0.02051333151757717,
          "194": 0.18431660532951355,
          "195": 1.3287039995193481,
          "196": 1.8666346073150635,
          "197": -0.2544107139110565,
          "198": 1.1701929569244385,
          "199": 1.6199538707733154,
          "200": 1.5688610076904297,
          "201": -0.1762453317642212,
          "202": 0.8949400186538696,
          "203": 1.1483889818191528,
          "204": 1.1176393032073975,
          "205": 0.3295680284500122,
          "206": -0.5689724683761597,
          "207": -1.2765337228775024,
          "208": 1.0348000526428223,
          "209": 0.6611949801445007,
          "210": -0.38939931988716125,
          "211": 0.887633740901947,
          "212": -1.8814047574996948,
          "213": 3.082232713699341,
          "214": -0.41860857605934143,
          "215": 0.12289806455373764,
          "216": -0.5611578822135925,
          "217": 2.3465209007263184,
          "218": 0.9868569374084473,
          "219": -1.3901875019073486,
          "220": -0.6310619711875916,
          "221": -0.6640977263450623,
          "222": -2.845151901245117,
          "223": -0.5843667387962341,
          "224": -0.3645361661911011,
          "225": 0.42841964960098267,
          "226": 1.2548147439956665,
          "227": 0.5529074668884277,
          "228": 0.8712664842605591,
          "229": 0.07122866064310074,
          "230": 0.121961809694767,
          "231": -1.7304115295410156,
          "232": -1.259809970855713,
          "233": 1.2638819217681885,
          "234": 1.1995329856872559,
          "235": -0.2995494604110718,
          "236": -1.6236486434936523,
          "237": -0.9013503193855286,
          "238": -1.1678862571716309,
          "239": -0.040995240211486816,
          "240": 0.45601364970207214,
          "241": 0.8425317406654358,
          "242": 1.8230102062225342,
          "243": -0.713831901550293,
          "244": 0.14355972409248352,
          "245": -0.2303786724805832,
          "246": 0.37711262702941895,
          "247": 0.35994619131088257,
          "248": -1.5896015167236328,
          "249": -0.056510549038648605,
          "250": -0.046833064407110214,
          "251": 0.1290895640850067,
          "252": -0.6400154829025269,
          "253": -0.10093405097723007,
          "254": 0.21654082834720612,
          "255": 0.11909430474042892,
          "256": -0.3278219699859619,
          "257": 0.15239891409873962,
          "258": -0.44318145513534546,
          "259": -0.6917856931686401,
          "260": 0.9875093698501587,
          "261": 0.6300523281097412,
          "262": 0.7122863531112671,
          "263": -0.6858120560646057,
          "264": -0.19999174773693085,
          "265": -2.8495967388153076,
          "266": 0.843726396560669,
          "267": -0.08279296010732651,
          "268": 0.7676735520362854,
          "269": -1.6276309490203857,
          "270": 0.5824562907218933,
          "271": -0.07686959952116013,
          "272": 2.1741247177124023,
          "273": 0.3178020417690277,
          "274": 0.7437907457351685,
          "275": 0.02316936105489731,
          "276": 1.4150288105010986,
          "277": 0.26354506611824036,
          "278": -2.169304609298706,
          "279": -0.21111437678337097,
          "280": 0.46414393186569214,
          "281": 1.3118374347686768,
          "282": 1.5172922611236572,
          "283": 1.1234019994735718,
          "284": 1.24180269241333,
          "285": 0.43222054839134216,
          "286": 1.6668353080749512,
          "287": 0.23964834213256836,
          "288": -3.4872708320617676,
          "289": -1.7188647985458374,
          "290": 2.027251958847046,
          "291": -0.704105019569397,
          "292": 0.2712705731391907,
          "293": -0.9286242723464966,
          "294": -0.9306436777114868,
          "295": 0.49017852544784546,
          "296": 0.3946167528629303,
          "297": 0.341121107339859,
          "298": 1.0084309577941895,
          "299": 0.5795912146568298,
          "300": -2.9451582431793213,
          "301": 0.7506229281425476,
          "302": -4.956150054931641,
          "303": -1.2111586332321167,
          "304": 0.786293625831604,
          "305": -0.042886119335889816,
          "306": -0.8055492043495178,
          "307": 0.2618201673030853,
          "308": -0.6285466551780701,
          "309": 1.2963616847991943,
          "310": 0.03778458386659622,
          "311": -0.8878493905067444,
          "312": -0.7908375859260559,
          "313": -0.8469425439834595,
          "314": 3.0700783729553223,
          "315": -0.18598400056362152,
          "316": -0.6978846788406372,
          "317": -0.3456820845603943,
          "318": -1.6243743896484375,
          "319": 1.2930675745010376,
          "320": 1.2032148838043213,
          "321": 1.6293985843658447,
          "322": -2.170891761779785,
          "323": 0.17532823979854584,
          "324": 1.0448369979858398,
          "325": 3.9835188388824463,
          "326": -1.3213139772415161,
          "327": 4.172176837921143,
          "328": -1.7873389720916748,
          "329": 0.5432834625244141,
          "330": -1.3505123853683472,
          "331": 0.4334547221660614,
          "332": -1.2308443784713745,
          "333": 0.02521364949643612,
          "334": -0.8077120184898376,
          "335": -1.1746705770492554,
          "336": -0.18259066343307495,
          "337": -0.19423896074295044,
          "338": 1.2427136898040771,
          "339": -0.9780795574188232,
          "340": 1.2214820384979248,
          "341": 0.8106845021247864,
          "342": 0.5764522552490234,
          "343": -1.2950352430343628,
          "344": -0.7159484624862671,
          "345": -4.044915676116943,
          "346": -1.2218067646026611,
          "347": 4.250306129455566,
          "348": -1.2085310220718384,
          "349": 0.15710589289665222,
          "350": 0.33440452814102173,
          "351": 2.510307788848877,
          "352": -1.3345450162887573,
          "353": 1.7342160940170288,
          "354": -2.105820655822754,
          "355": -1.0935503244400024,
          "356": 2.2159364223480225,
          "357": 0.33396077156066895,
          "358": 1.8283565044403076,
          "359": 0.8652107119560242,
          "360": -0.4132005274295807,
          "361": -2.3076603412628174,
          "362": -0.19463543593883514,
          "363": -1.5912318229675293,
          "364": 0.9027711153030396,
          "365": -1.3419551849365234,
          "366": 0.5007764101028442,
          "367": -5.130160808563232,
          "368": -0.7994654774665833,
          "369": -2.382045269012451,
          "370": 2.8445329666137695,
          "371": 0.5758415460586548,
          "372": 3.5572352409362793,
          "373": -0.9833310842514038,
          "374": 3.292001247406006,
          "375": -0.8167794346809387,
          "376": -2.550595998764038,
          "377": 0.7630556225776672,
          "378": -0.18226772546768188,
          "379": -1.760573148727417,
          "380": 1.5536924600601196,
          "381": 0.6197295784950256,
          "382": -1.8162480592727661,
          "383": 0.006322124507278204,
          "384": 0.30143409967422485,
          "385": 0.946546196937561,
          "386": -0.2754983901977539,
          "387": 0.2264898121356964,
          "388": 2.632305860519409,
          "389": 0.27180182933807373,
          "390": 0.7527470588684082,
          "391": -0.31782254576683044,
          "392": 0.47340288758277893,
          "393": 2.015817880630493,
          "394": -0.9916602373123169,
          "395": -2.795347213745117,
          "396": 4.473090648651123,
          "397": 0.6774951219558716,
          "398": -0.8768883943557739,
          "399": 2.7079808712005615,
          "400": 2.02016282081604,
          "401": -0.5970308184623718,
          "402": 2.1785666942596436,
          "403": 1.340732455253601,
          "404": -0.9304958581924438,
          "405": 5.075272083282471,
          "406": -1.6163607835769653,
          "407": -2.7655906677246094,
          "408": -2.3867125511169434,
          "409": -1.1916664838790894,
          "410": -3.374008893966675,
          "411": -2.7191059589385986,
          "412": 0.20542100071907043,
          "413": -0.9077267050743103,
          "414": 2.573270797729492,
          "415": -0.6968166828155518,
          "416": 0.45109298825263977,
          "417": 1.009926199913025,
          "418": -0.9094643592834473,
          "419": 3.122948169708252,
          "420": 0.28550446033477783,
          "421": 1.7922556400299072,
          "422": -2.073788642883301,
          "423": -0.24984689056873322,
          "424": -1.4367209672927856,
          "425": 1.3826807737350464,
          "426": -2.6354432106018066,
          "427": -0.17009106278419495,
          "428": 0.640101432800293,
          "429": 1.8992291688919067,
          "430": -0.44203808903694153,
          "431": 3.5810141563415527,
          "432": -1.4548165798187256,
          "433": 0.8286863565444946,
          "434": 0.785286009311676,
          "435": -0.1943858414888382,
          "436": -0.14562882483005524,
          "437": 2.8054866790771484,
          "438": 0.3093220889568329,
          "439": -1.1329935789108276,
          "440": -3.9843013286590576,
          "441": 1.0520938634872437,
          "442": 1.7720786333084106,
          "443": -0.37268275022506714,
          "444": 4.518843650817871,
          "445": -0.7785975933074951,
          "446": -1.9337198734283447,
          "447": -0.2404799908399582,
          "448": -0.20943515002727509,
          "449": -0.07632048428058624,
          "450": -0.4553690254688263,
          "451": -0.02772694081068039,
          "452": 0.9922988414764404,
          "453": 0.8075910806655884,
          "454": 1.927931308746338,
          "455": 2.144814968109131,
          "456": -1.7657771110534668,
          "457": -1.7232526540756226,
          "458": 1.0703905820846558,
          "459": -2.7125086784362793,
          "460": 0.8698505759239197,
          "461": 0.920559823513031,
          "462": -0.0630379244685173,
          "463": 1.6786974668502808,
          "464": 0.6460902094841003,
          "465": -0.4159720838069916,
          "466": 3.1458113193511963,
          "467": 2.15006160736084,
          "468": -0.5823376178741455,
          "469": -0.1693938672542572,
          "470": -0.7720952033996582,
          "471": 1.5980491638183594,
          "472": 0.7693420052528381,
          "473": -1.205141305923462,
          "474": 1.8058483600616455,
          "475": -0.6973270773887634,
          "476": 1.8772250413894653,
          "477": -0.1892954558134079,
          "478": 0.9153057336807251,
          "479": 0.477224737405777,
          "480": -1.4437618255615234,
          "481": -0.04339168965816498,
          "482": 0.5835809111595154,
          "483": 1.4030213356018066,
          "484": 0.856336236000061,
          "485": 2.247976064682007,
          "486": -0.6144634485244751,
          "487": -0.36121225357055664,
          "488": 0.5923730731010437,
          "489": 0.8517618775367737,
          "490": 0.17995323240756989,
          "491": 0.13208617269992828,
          "492": 1.4668816328048706,
          "493": 0.47455915808677673,
          "494": -0.360301673412323,
          "495": 1.262233018875122,
          "496": -0.015042382292449474,
          "497": 0.05676393210887909,
          "498": 0.44809189438819885,
          "499": -0.6585223078727722,
          "500": 3.3136820793151855,
          "501": -1.712214469909668,
          "502": -0.7893836498260498,
          "503": 3.2595150470733643,
          "504": -0.3875350058078766,
          "505": -0.32939183712005615,
          "506": -1.6550219058990479,
          "507": -1.367388367652893,
          "508": 0.09573451429605484,
          "509": 2.9424619674682617,
          "510": -1.230738639831543,
          "511": 0.04382628574967384,
          "512": -0.43837976455688477,
          "513": -0.653630256652832,
          "514": 0.004727499093860388,
          "515": -0.04787563160061836,
          "516": 0.38911983370780945,
          "517": 0.9770045280456543,
          "518": 1.188680648803711,
          "519": -2.282238483428955
        }
      },
      "inputHidden": {
        "rows": 20,
        "columns": 20,
        "weights": {
          "0": 0.5447863936424255,
          "1": 0.26767829060554504,
          "2": -2.3947901725769043,
          "3": 5.416074752807617,
          "4": 0.015605447813868523,
          "5": 2.4989144802093506,
          "6": 2.029707670211792,
          "7": 0.8905438184738159,
          "8": -1.7035285234451294,
          "9": 0.5641631484031677,
          "10": -0.7728381752967834,
          "11": 0.8892646431922913,
          "12": -4.663938522338867,
          "13": -0.5581669211387634,
          "14": -3.8766331672668457,
          "15": -0.4319398105144501,
          "16": -0.22607123851776123,
          "17": 1.4413745403289795,
          "18": -1.2090297937393188,
          "19": 2.686469078063965,
          "20": 1.997017741203308,
          "21": -8.209569931030273,
          "22": -3.8962910175323486,
          "23": 10.233288764953613,
          "24": 6.5390472412109375,
          "25": -7.093122482299805,
          "26": 4.132002830505371,
          "27": 1.2677966356277466,
          "28": 1.723912000656128,
          "29": -2.4802961349487305,
          "30": -4.384771347045898,
          "31": -1.362975835800171,
          "32": -2.574462413787842,
          "33": 7.053258895874023,
          "34": -3.035996913909912,
          "35": -1.8501324653625488,
          "36": 6.085903644561768,
          "37": -7.399659633636475,
          "38": 0.2620258629322052,
          "39": 14.211844444274902,
          "40": 10.446418762207031,
          "41": 2.1095645427703857,
          "42": -3.485525131225586,
          "43": 2.765103816986084,
          "44": -5.881944179534912,
          "45": -5.674218654632568,
          "46": 4.466667175292969,
          "47": -2.2742538452148438,
          "48": 2.503161668777466,
          "49": 0.20142459869384766,
          "50": -3.634300470352173,
          "51": -0.4692152142524719,
          "52": 0.13879860937595367,
          "53": -0.3489457070827484,
          "54": -8.663281440734863,
          "55": -3.288996696472168,
          "56": 1.6628626585006714,
          "57": -7.171369552612305,
          "58": -2.056086540222168,
          "59": -1.399780511856079,
          "60": -12.18954086303711,
          "61": 1.6822102069854736,
          "62": -0.5839837193489075,
          "63": 3.614806890487671,
          "64": 0.7360479235649109,
          "65": 0.6023844480514526,
          "66": 0.2528248131275177,
          "67": -1.5271937847137451,
          "68": -0.948344349861145,
          "69": -8.590221405029297,
          "70": 3.1809394359588623,
          "71": 5.5751848220825195,
          "72": -2.1941256523132324,
          "73": -0.13367149233818054,
          "74": -1.5835298299789429,
          "75": -5.029571056365967,
          "76": -3.7472264766693115,
          "77": -1.417780876159668,
          "78": 1.7556777000427246,
          "79": 3.920010566711426,
          "80": -5.282867908477783,
          "81": -1.3572468757629395,
          "82": 0.2538536787033081,
          "83": -0.3275626301765442,
          "84": -1.662095308303833,
          "85": 1.506977915763855,
          "86": 0.9369194507598877,
          "87": 0.9344909191131592,
          "88": -2.4281013011932373,
          "89": -0.1682552695274353,
          "90": 0.4574665427207947,
          "91": 0.7465115189552307,
          "92": 1.9943510293960571,
          "93": -0.6607561111450195,
          "94": 0.0453215055167675,
          "95": 1.916319727897644,
          "96": 2.539379835128784,
          "97": 2.6016762256622314,
          "98": -3.2474594116210938,
          "99": -0.3938547670841217,
          "100": -1.3463778495788574,
          "101": 0.8503397107124329,
          "102": -1.9766465425491333,
          "103": 2.1987898349761963,
          "104": -1.0626699924468994,
          "105": 0.7073965668678284,
          "106": -0.3662617802619934,
          "107": 1.6754200458526611,
          "108": 2.6740198135375977,
          "109": -0.7197496891021729,
          "110": -2.0224945545196533,
          "111": 1.266575574874878,
          "112": -3.6273794174194336,
          "113": -0.03359745815396309,
          "114": 4.839273452758789,
          "115": -2.388964891433716,
          "116": 1.3126055002212524,
          "117": -1.1252527236938477,
          "118": 1.633466362953186,
          "119": -0.7643696665763855,
          "120": 1.2382590770721436,
          "121": 1.1186892986297607,
          "122": 0.18707799911499023,
          "123": 4.9711174964904785,
          "124": 1.314134120941162,
          "125": -4.02573823928833,
          "126": 3.9715147018432617,
          "127": -1.2595789432525635,
          "128": 3.353478193283081,
          "129": -2.12707781791687,
          "130": -5.889819145202637,
          "131": -5.496005058288574,
          "132": 6.239579677581787,
          "133": -2.110774517059326,
          "134": 0.355892539024353,
          "135": -3.9288418292999268,
          "136": 1.139133334159851,
          "137": -7.939502716064453,
          "138": 0.8843122124671936,
          "139": 2.1430654525756836,
          "140": -6.110403060913086,
          "141": 1.9697061777114868,
          "142": 2.260324716567993,
          "143": -3.7846879959106445,
          "144": -5.641510963439941,
          "145": -1.0036718845367432,
          "146": 0.8678769469261169,
          "147": 4.890267848968506,
          "148": 1.8766207695007324,
          "149": -1.2315539121627808,
          "150": -1.7003346681594849,
          "151": -0.7792677283287048,
          "152": 1.8501832485198975,
          "153": 1.2032248973846436,
          "154": -11.072213172912598,
          "155": 8.474376678466797,
          "156": 1.6023436784744263,
          "157": 3.4733684062957764,
          "158": -4.925020217895508,
          "159": 2.410508871078491,
          "160": 5.195488452911377,
          "161": -2.0132522583007812,
          "162": 1.8039335012435913,
          "163": 4.563205242156982,
          "164": 2.439985513687134,
          "165": -4.738351345062256,
          "166": 3.9286842346191406,
          "167": 3.159910202026367,
          "168": 2.6646556854248047,
          "169": 3.024167776107788,
          "170": -4.227093696594238,
          "171": 1.1196370124816895,
          "172": -8.279985427856445,
          "173": -2.409554958343506,
          "174": -2.0752782821655273,
          "175": -14.409257888793945,
          "176": 4.917093753814697,
          "177": 3.726759433746338,
          "178": 8.869584083557129,
          "179": -2.836074113845825,
          "180": -2.7771477699279785,
          "181": 1.2480018138885498,
          "182": 7.027336120605469,
          "183": -4.998086452484131,
          "184": 12.592949867248535,
          "185": 2.5573201179504395,
          "186": -0.014109677635133266,
          "187": -2.2591333389282227,
          "188": 3.2002978324890137,
          "189": -5.603542804718018,
          "190": -7.30397367477417,
          "191": 7.834620475769043,
          "192": -1.4407817125320435,
          "193": 3.109128713607788,
          "194": -1.0281031131744385,
          "195": -2.388145923614502,
          "196": -0.41385748982429504,
          "197": -7.68616247177124,
          "198": 2.434657096862793,
          "199": -4.110435485839844,
          "200": 3.4852633476257324,
          "201": 10.068876266479492,
          "202": 2.3297786712646484,
          "203": -3.292483329772949,
          "204": 4.671981334686279,
          "205": -8.214608192443848,
          "206": 7.287152290344238,
          "207": 0.42551374435424805,
          "208": -0.3536348342895508,
          "209": -0.22244080901145935,
          "210": 5.84602689743042,
          "211": -10.42845344543457,
          "212": 1.8662694692611694,
          "213": -1.475833535194397,
          "214": 3.8005261421203613,
          "215": -0.7196260690689087,
          "216": 1.4430944919586182,
          "217": 2.9606337547302246,
          "218": 6.699743747711182,
          "219": -6.339025974273682,
          "220": 0.7629071474075317,
          "221": -0.1283825933933258,
          "222": -1.1439262628555298,
          "223": 0.255906343460083,
          "224": -1.3381866216659546,
          "225": -2.8504586219787598,
          "226": 1.7109043598175049,
          "227": -2.501892566680908,
          "228": -0.5642421841621399,
          "229": 0.2775547504425049,
          "230": -2.943887948989868,
          "231": -5.721378326416016,
          "232": 0.9163264036178589,
          "233": 0.7467540502548218,
          "234": 0.8546373248100281,
          "235": -9.84365177154541,
          "236": 1.7367268800735474,
          "237": 2.4565048217773438,
          "238": 0.34192782640457153,
          "239": -0.8560299873352051,
          "240": -6.850805282592773,
          "241": 0.34995535016059875,
          "242": 1.4797077178955078,
          "243": -0.8081005215644836,
          "244": -2.143177032470703,
          "245": 1.6320216655731201,
          "246": -3.1762993335723877,
          "247": 1.9217414855957031,
          "248": -2.990931749343872,
          "249": 3.532252788543701,
          "250": 0.5469008684158325,
          "251": 3.7132439613342285,
          "252": 0.8193559646606445,
          "253": -2.4764695167541504,
          "254": -0.37631499767303467,
          "255": 6.448436260223389,
          "256": -1.5159016847610474,
          "257": 4.43949031829834,
          "258": 5.79469108581543,
          "259": 1.987480640411377,
          "260": -0.9219202399253845,
          "261": 0.9397739171981812,
          "262": 0.06797067075967789,
          "263": -1.6683380603790283,
          "264": -0.29067274928092957,
          "265": 4.896178722381592,
          "266": -0.35808703303337097,
          "267": -1.570298671722412,
          "268": -3.263749599456787,
          "269": -2.536679983139038,
          "270": 1.8994158506393433,
          "271": 2.777435064315796,
          "272": -2.7962167263031006,
          "273": 2.093294858932495,
          "274": -0.17949464917182922,
          "275": 1.3480011224746704,
          "276": -5.626853942871094,
          "277": 3.101194381713867,
          "278": -5.286855220794678,
          "279": 0.06496293097734451,
          "280": -0.41557881236076355,
          "281": -3.2942607402801514,
          "282": -5.231958389282227,
          "283": -8.63763427734375,
          "284": -1.465282917022705,
          "285": 4.710942268371582,
          "286": 1.7097206115722656,
          "287": 2.0223002433776855,
          "288": -3.0112979412078857,
          "289": 3.688689708709717,
          "290": -7.221510887145996,
          "291": -1.5696183443069458,
          "292": -4.316987991333008,
          "293": -3.4905693531036377,
          "294": 0.7269179821014404,
          "295": -4.3021464347839355,
          "296": 1.7422025203704834,
          "297": -3.161015748977661,
          "298": 4.704821586608887,
          "299": -6.155476093292236,
          "300": 3.333803176879883,
          "301": -0.38407108187675476,
          "302": 3.412848949432373,
          "303": -2.6257433891296387,
          "304": 0.2811431884765625,
          "305": 1.3366540670394897,
          "306": -1.4180917739868164,
          "307": 0.18462057411670685,
          "308": 2.576106071472168,
          "309": -2.5475242137908936,
          "310": -1.7543697357177734,
          "311": -0.49676764011383057,
          "312": -1.0400390625,
          "313": -5.379068851470947,
          "314": 3.146993637084961,
          "315": -3.464704751968384,
          "316": -0.9847872853279114,
          "317": 2.2457587718963623,
          "318": -0.3335869312286377,
          "319": 0.5861141085624695,
          "320": 4.9182610511779785,
          "321": 2.623710870742798,
          "322": -2.336216449737549,
          "323": -0.1785053312778473,
          "324": -4.213877201080322,
          "325": 2.388607978820801,
          "326": 4.409634590148926,
          "327": 1.2440563440322876,
          "328": -2.4943766593933105,
          "329": -1.2754690647125244,
          "330": 6.077588081359863,
          "331": -4.827417373657227,
          "332": -2.8264267444610596,
          "333": -1.5856813192367554,
          "334": -10.038326263427734,
          "335": -3.3189196586608887,
          "336": -2.7843642234802246,
          "337": 0.1173228770494461,
          "338": 0.24873177707195282,
          "339": -3.9739274978637695,
          "340": -1.0410373210906982,
          "341": 3.505511522293091,
          "342": -2.4303274154663086,
          "343": -0.4166506826877594,
          "344": 2.446368455886841,
          "345": -1.7000164985656738,
          "346": 1.8551266193389893,
          "347": 1.7116060256958008,
          "348": 1.9832592010498047,
          "349": 0.6367831230163574,
          "350": 1.014482855796814,
          "351": 1.9954333305358887,
          "352": 1.3470566272735596,
          "353": -0.9461637139320374,
          "354": -1.1032776832580566,
          "355": 0.8208062052726746,
          "356": 3.640746831893921,
          "357": -5.491443157196045,
          "358": 1.555776596069336,
          "359": 2.4279515743255615,
          "360": -0.5898780822753906,
          "361": -5.6654767990112305,
          "362": -5.8521528244018555,
          "363": 1.5074936151504517,
          "364": 3.5679750442504883,
          "365": -12.030832290649414,
          "366": 0.30858513712882996,
          "367": -2.732588768005371,
          "368": -2.993340492248535,
          "369": -4.630092620849609,
          "370": -5.134442329406738,
          "371": 1.0586007833480835,
          "372": 0.02070087008178234,
          "373": 5.941161155700684,
          "374": -4.154605388641357,
          "375": 4.01717472076416,
          "376": 6.308498859405518,
          "377": -1.4068406820297241,
          "378": -11.707374572753906,
          "379": -2.952253580093384,
          "380": 3.1033244132995605,
          "381": 1.5692119598388672,
          "382": -2.121556043624878,
          "383": 6.263515472412109,
          "384": 4.237092018127441,
          "385": 4.0338053703308105,
          "386": 0.5291039347648621,
          "387": -0.041083380579948425,
          "388": -2.565406084060669,
          "389": 1.4350351095199585,
          "390": 0.5380847454071045,
          "391": -0.03952483832836151,
          "392": 4.826844692230225,
          "393": 4.339836597442627,
          "394": 1.2528973817825317,
          "395": -7.85338020324707,
          "396": -2.121025562286377,
          "397": -4.140561103820801,
          "398": 2.5443782806396484,
          "399": 0.7465466260910034
        }
      },
      "inputBias": {
        "rows": 20,
        "columns": 1,
        "weights": {
          "0": -1.2498588562011719,
          "1": 8.338704109191895,
          "2": 2.453939437866211,
          "3": 3.4944779872894287,
          "4": 2.5744426250457764,
          "5": 3.514289617538452,
          "6": 3.845492124557495,
          "7": 0.9351114630699158,
          "8": 1.5844556093215942,
          "9": -0.36851146817207336,
          "10": 3.7409584522247314,
          "11": -2.9572746753692627,
          "12": -2.5848324298858643,
          "13": -0.3266294002532959,
          "14": 3.3307945728302,
          "15": -1.6592357158660889,
          "16": -1.1136510372161865,
          "17": 1.5387548208236694,
          "18": 2.154904842376709,
          "19": -1.295585036277771
        }
      },
      "forgetMatrix": {
        "rows": 20,
        "columns": 26,
        "weights": {
          "0": 4.135891437530518,
          "1": 3.4716944694519043,
          "2": -2.288252115249634,
          "3": 0.5505065321922302,
          "4": -3.536355495452881,
          "5": -0.6131769418716431,
          "6": -1.40720796585083,
          "7": 0.6884934306144714,
          "8": -1.269991159439087,
          "9": -0.3472987711429596,
          "10": -0.7999318242073059,
          "11": -0.0069709583185613155,
          "12": -3.305528402328491,
          "13": -5.710902690887451,
          "14": 0.5572288036346436,
          "15": -0.2865806519985199,
          "16": 1.4033786058425903,
          "17": 0.4270092248916626,
          "18": 0.06692087650299072,
          "19": -0.8154271245002747,
          "20": 0.31659650802612305,
          "21": -1.4910036325454712,
          "22": -3.219834327697754,
          "23": -0.043210163712501526,
          "24": 1.3807578086853027,
          "25": -1.7594530582427979,
          "26": -0.40847766399383545,
          "27": -0.6124651432037354,
          "28": 1.6903550624847412,
          "29": -1.1244897842407227,
          "30": -1.0198249816894531,
          "31": 0.977803647518158,
          "32": -0.7769317626953125,
          "33": 2.297475814819336,
          "34": 1.2504452466964722,
          "35": -1.038549780845642,
          "36": 0.8081104755401611,
          "37": 0.704586386680603,
          "38": 0.3104320466518402,
          "39": 0.862816572189331,
          "40": 0.3850623667240143,
          "41": 0.23542557656764984,
          "42": -0.9273407459259033,
          "43": -0.7051602602005005,
          "44": 1.4558145999908447,
          "45": 1.3585022687911987,
          "46": -0.17163105309009552,
          "47": 0.06952451914548874,
          "48": 0.655130922794342,
          "49": 0.35349389910697937,
          "50": -2.577180862426758,
          "51": -1.2602394819259644,
          "52": 0.02156238444149494,
          "53": -1.555752158164978,
          "54": -1.571242332458496,
          "55": -1.293472170829773,
          "56": 2.423508644104004,
          "57": -1.6222127676010132,
          "58": 0.502816915512085,
          "59": -2.8424887657165527,
          "60": -0.8374513387680054,
          "61": 0.9232811331748962,
          "62": 0.7236955761909485,
          "63": 0.7145551443099976,
          "64": -1.5891696214675903,
          "65": 1.0992963314056396,
          "66": 1.4488245248794556,
          "67": 1.34950590133667,
          "68": -1.0519707202911377,
          "69": -0.6335523128509521,
          "70": -2.4164421558380127,
          "71": 0.6689548492431641,
          "72": 0.33972030878067017,
          "73": -0.856696605682373,
          "74": -0.02767079323530197,
          "75": 1.6804556846618652,
          "76": 3.8476593494415283,
          "77": 0.14259010553359985,
          "78": -3.161438226699829,
          "79": 0.6650019288063049,
          "80": 3.158404588699341,
          "81": -0.5797191858291626,
          "82": 0.0265867430716753,
          "83": 0.10066051036119461,
          "84": -2.9548916816711426,
          "85": 0.3507828712463379,
          "86": -3.1490232944488525,
          "87": 0.1267743557691574,
          "88": 0.4551858603954315,
          "89": -1.4657533168792725,
          "90": 0.6533707976341248,
          "91": 0.09279648959636688,
          "92": 1.4317675828933716,
          "93": 0.2677762508392334,
          "94": 2.233104944229126,
          "95": -0.1648777723312378,
          "96": 2.2291316986083984,
          "97": -1.8070189952850342,
          "98": 0.7770019173622131,
          "99": -3.9696199893951416,
          "100": -0.13366162776947021,
          "101": -2.367563009262085,
          "102": -2.4759819507598877,
          "103": -0.25191035866737366,
          "104": -0.9675736427307129,
          "105": 2.242806911468506,
          "106": -0.056487418711185455,
          "107": -0.8399209976196289,
          "108": -1.5711511373519897,
          "109": -0.09428367763757706,
          "110": 1.9648395776748657,
          "111": -0.4254576563835144,
          "112": 2.351789951324463,
          "113": -0.2625325918197632,
          "114": 2.1849570274353027,
          "115": 0.1408819854259491,
          "116": -2.998448610305786,
          "117": 0.20139749348163605,
          "118": -0.647891640663147,
          "119": 2.7142560482025146,
          "120": 0.8528688549995422,
          "121": -0.40468043088912964,
          "122": 1.3830982446670532,
          "123": -0.35392478108406067,
          "124": -0.0997292548418045,
          "125": -1.2633850574493408,
          "126": -0.021391835063695908,
          "127": -0.6216375827789307,
          "128": -0.6803894639015198,
          "129": 1.6119823455810547,
          "130": 0.6036795377731323,
          "131": -0.17941582202911377,
          "132": -3.06588077545166,
          "133": -2.1733322143554688,
          "134": 2.1172499656677246,
          "135": 0.1037876307964325,
          "136": -0.521300196647644,
          "137": -0.4523370563983917,
          "138": 0.6463851928710938,
          "139": 1.9685218334197998,
          "140": 1.3617448806762695,
          "141": 1.233376383781433,
          "142": -2.575847625732422,
          "143": -1.0887037515640259,
          "144": -1.9006683826446533,
          "145": 1.1735763549804688,
          "146": -0.9100292325019836,
          "147": 0.4351541996002197,
          "148": 1.8858473300933838,
          "149": 0.7690237760543823,
          "150": 0.8546850085258484,
          "151": -1.5170581340789795,
          "152": 0.9540523886680603,
          "153": 0.5108543634414673,
          "154": -0.013356951996684074,
          "155": -0.6871458292007446,
          "156": 1.220849871635437,
          "157": 0.015746625140309334,
          "158": 0.8979417681694031,
          "159": 0.5156899094581604,
          "160": -2.4717018604278564,
          "161": 0.947743833065033,
          "162": -0.6146413683891296,
          "163": 1.564536452293396,
          "164": 0.8061835169792175,
          "165": 0.48728904128074646,
          "166": 0.4421883225440979,
          "167": -1.309059739112854,
          "168": -0.9610031843185425,
          "169": -0.5554625391960144,
          "170": -0.7416313886642456,
          "171": 1.82096266746521,
          "172": 0.939146876335144,
          "173": 1.4431716203689575,
          "174": 2.913064479827881,
          "175": -0.9179401993751526,
          "176": 0.7251687049865723,
          "177": -0.14741823077201843,
          "178": 1.2083024978637695,
          "179": -0.9518513083457947,
          "180": -1.6014899015426636,
          "181": -0.9295143485069275,
          "182": 0.3587700128555298,
          "183": 1.4165624380111694,
          "184": -6.0387654304504395,
          "185": 0.10679185390472412,
          "186": 0.4659791588783264,
          "187": -1.8021680116653442,
          "188": 1.2920421361923218,
          "189": -0.0572371706366539,
          "190": 0.754464864730835,
          "191": -0.4398351311683655,
          "192": -0.4298854172229767,
          "193": 0.54173344373703,
          "194": 2.3478333950042725,
          "195": -1.022789478302002,
          "196": -0.3470156788825989,
          "197": 0.8286953568458557,
          "198": -1.633508324623108,
          "199": 0.7230945229530334,
          "200": 1.4898003339767456,
          "201": -0.073664091527462,
          "202": -2.1308062076568604,
          "203": 0.5964435338973999,
          "204": -0.07145095616579056,
          "205": 1.5744138956069946,
          "206": -0.07695110887289047,
          "207": -0.0960637703537941,
          "208": -1.2214035987854004,
          "209": 0.6153917908668518,
          "210": -0.03187580779194832,
          "211": -0.840046226978302,
          "212": -1.0642980337142944,
          "213": 0.8112952709197998,
          "214": -2.2246103286743164,
          "215": -1.023682951927185,
          "216": -1.174641728401184,
          "217": -0.14001357555389404,
          "218": 0.08432894945144653,
          "219": 0.3571961522102356,
          "220": -0.8705630898475647,
          "221": -0.20883110165596008,
          "222": -0.19762635231018066,
          "223": 0.4754033088684082,
          "224": 2.168097972869873,
          "225": 0.05040799453854561,
          "226": 2.6311044692993164,
          "227": -2.3857643604278564,
          "228": 3.775082588195801,
          "229": 0.2807289958000183,
          "230": -1.1025391817092896,
          "231": -0.49830833077430725,
          "232": -1.0805189609527588,
          "233": 1.4698207378387451,
          "234": 1.1892006397247314,
          "235": -0.26187703013420105,
          "236": -0.5439146757125854,
          "237": -0.5198688507080078,
          "238": -1.9741331338882446,
          "239": -1.314091682434082,
          "240": -0.2635173201560974,
          "241": 3.6643693447113037,
          "242": 2.02142596244812,
          "243": -2.003058671951294,
          "244": -0.221329927444458,
          "245": 0.06885552406311035,
          "246": 0.9520295262336731,
          "247": 0.02751351334154606,
          "248": -2.497776508331299,
          "249": -1.5356602668762207,
          "250": -2.8759257793426514,
          "251": 0.14032354950904846,
          "252": -0.8085318207740784,
          "253": -0.23581057786941528,
          "254": -1.9613937139511108,
          "255": -0.9329160451889038,
          "256": 2.6516809463500977,
          "257": 0.5790815353393555,
          "258": -0.7067795991897583,
          "259": -0.6593620181083679,
          "260": -0.7999253273010254,
          "261": -0.01055730227380991,
          "262": -0.049025122076272964,
          "263": 4.05469274520874,
          "264": 4.955771446228027,
          "265": -0.7225448489189148,
          "266": 0.9309797286987305,
          "267": -3.674914598464966,
          "268": 3.383397102355957,
          "269": 0.0635673850774765,
          "270": -4.357421875,
          "271": 0.7720603346824646,
          "272": -2.6487624645233154,
          "273": 1.1094497442245483,
          "274": -4.103894233703613,
          "275": -1.53830885887146,
          "276": -1.994462490081787,
          "277": 2.999295711517334,
          "278": -0.06657832115888596,
          "279": -2.804940938949585,
          "280": 0.4977704584598541,
          "281": -3.55967378616333,
          "282": -0.7448071837425232,
          "283": -1.8482043743133545,
          "284": 0.4143383800983429,
          "285": 0.514543354511261,
          "286": 0.995561957359314,
          "287": 1.6740949153900146,
          "288": -3.453768491744995,
          "289": -0.3214932680130005,
          "290": 0.04401160404086113,
          "291": -0.6193735003471375,
          "292": 0.13765063881874084,
          "293": -1.0895048379898071,
          "294": -1.241469144821167,
          "295": 1.2819116115570068,
          "296": 0.599604070186615,
          "297": 1.0561747550964355,
          "298": 1.6448036432266235,
          "299": -1.4475984573364258,
          "300": -1.6196671724319458,
          "301": 0.853796124458313,
          "302": -0.2647177278995514,
          "303": -1.3746110200881958,
          "304": 0.7067963480949402,
          "305": 0.29481151700019836,
          "306": -1.250993013381958,
          "307": 0.07879127562046051,
          "308": -0.5935149192810059,
          "309": 1.319900393486023,
          "310": 0.8666809797286987,
          "311": -1.1314536333084106,
          "312": -0.41078779101371765,
          "313": 1.3477060794830322,
          "314": 2.802849054336548,
          "315": 2.476407051086426,
          "316": 0.47398197650909424,
          "317": 0.8040105104446411,
          "318": -1.510011911392212,
          "319": -0.34399741888046265,
          "320": -2.613353967666626,
          "321": 0.09298115968704224,
          "322": -0.7060403227806091,
          "323": -0.6902960538864136,
          "324": 3.026029586791992,
          "325": 0.712821364402771,
          "326": -0.19879014790058136,
          "327": 1.607247233390808,
          "328": 1.6571365594863892,
          "329": -2.0446736812591553,
          "330": 0.09310305118560791,
          "331": 3.7785046100616455,
          "332": 0.48259416222572327,
          "333": 2.116395950317383,
          "334": 2.9050447940826416,
          "335": 1.7615480422973633,
          "336": -1.421642541885376,
          "337": -1.067148208618164,
          "338": 0.03777218237519264,
          "339": -0.8490674495697021,
          "340": -0.5210428237915039,
          "341": -0.4400741457939148,
          "342": -0.27565211057662964,
          "343": -0.1839035153388977,
          "344": 1.9801645278930664,
          "345": -2.2514827251434326,
          "346": 0.06140325218439102,
          "347": 2.551656723022461,
          "348": 3.6750285625457764,
          "349": 1.3514783382415771,
          "350": -2.202012300491333,
          "351": -1.5125772953033447,
          "352": 0.08172262459993362,
          "353": 0.31354883313179016,
          "354": 0.9146347045898438,
          "355": -3.06693959236145,
          "356": 0.7425268888473511,
          "357": 2.5535340309143066,
          "358": 0.5673506855964661,
          "359": 0.43009597063064575,
          "360": -0.24181166291236877,
          "361": 0.17537198960781097,
          "362": 1.9225741624832153,
          "363": -2.0681328773498535,
          "364": 3.2985458374023438,
          "365": 0.03540299832820892,
          "366": -2.5636982917785645,
          "367": -3.8596956729888916,
          "368": -2.827183246612549,
          "369": -3.284914493560791,
          "370": -0.5862643122673035,
          "371": 0.5795165300369263,
          "372": 1.9265726804733276,
          "373": -0.8634874224662781,
          "374": 1.9369614124298096,
          "375": 0.5418300628662109,
          "376": 0.6975176930427551,
          "377": -3.363405227661133,
          "378": -1.8563618659973145,
          "379": -1.4068892002105713,
          "380": -0.6674034595489502,
          "381": -1.2736830711364746,
          "382": 1.8116328716278076,
          "383": -0.9122041463851929,
          "384": 1.3111693859100342,
          "385": -0.12669748067855835,
          "386": -1.4838032722473145,
          "387": 1.181443691253662,
          "388": -0.7955936789512634,
          "389": -0.15781834721565247,
          "390": 0.09669391810894012,
          "391": 2.547559976577759,
          "392": -1.7161082029342651,
          "393": -2.0949840545654297,
          "394": 0.4317184090614319,
          "395": 3.0559709072113037,
          "396": 2.063047409057617,
          "397": -1.6999455690383911,
          "398": -1.2570257186889648,
          "399": 2.67183518409729,
          "400": 1.4990994930267334,
          "401": -0.1142086610198021,
          "402": -3.7373290061950684,
          "403": -0.8398821949958801,
          "404": -1.7143949270248413,
          "405": -1.7439656257629395,
          "406": 2.563790798187256,
          "407": 0.542638897895813,
          "408": 1.0904436111450195,
          "409": -0.20615054666996002,
          "410": 2.71138072013855,
          "411": 1.810848355293274,
          "412": 1.3447396755218506,
          "413": -0.7216691970825195,
          "414": -0.6353011131286621,
          "415": 0.33221179246902466,
          "416": -0.8632969856262207,
          "417": 0.36744001507759094,
          "418": -0.8279213309288025,
          "419": 0.2050284743309021,
          "420": 2.0932979583740234,
          "421": 1.1649903059005737,
          "422": -1.7242348194122314,
          "423": -3.8938839435577393,
          "424": -1.0517224073410034,
          "425": 3.908385753631592,
          "426": 0.6237156987190247,
          "427": -2.3048095703125,
          "428": -2.2418158054351807,
          "429": 0.3358708322048187,
          "430": 1.951339840888977,
          "431": -0.3223798871040344,
          "432": 0.1602754294872284,
          "433": 1.345659852027893,
          "434": 2.198300361633301,
          "435": -1.0622789859771729,
          "436": 3.3287620544433594,
          "437": 1.1996303796768188,
          "438": -1.7430111169815063,
          "439": -5.6765666007995605,
          "440": -2.4039218425750732,
          "441": -0.4117875099182129,
          "442": 0.9667761921882629,
          "443": -1.628745436668396,
          "444": 1.8160738945007324,
          "445": -0.2223614901304245,
          "446": -1.3952809572219849,
          "447": 0.6173419952392578,
          "448": 0.6525733470916748,
          "449": 1.74428391456604,
          "450": 2.445186138153076,
          "451": 0.3516591191291809,
          "452": 2.3641152381896973,
          "453": -0.0976090058684349,
          "454": 1.9028587341308594,
          "455": 2.1624789237976074,
          "456": 0.048407670110464096,
          "457": 2.487210750579834,
          "458": -0.5198870301246643,
          "459": 1.1340861320495605,
          "460": -0.9559122323989868,
          "461": -2.5973896980285645,
          "462": -1.0233821868896484,
          "463": -1.7777913808822632,
          "464": 0.5471624732017517,
          "465": -2.71315598487854,
          "466": -1.8425801992416382,
          "467": -1.214087724685669,
          "468": 0.8679606914520264,
          "469": 0.07262222468852997,
          "470": -0.9422090649604797,
          "471": -1.0308417081832886,
          "472": -1.1036676168441772,
          "473": 0.15955236554145813,
          "474": 0.6966617703437805,
          "475": 0.8760983347892761,
          "476": 0.20783615112304688,
          "477": 2.223788022994995,
          "478": 0.19105951488018036,
          "479": -0.6819320917129517,
          "480": -0.36145180463790894,
          "481": 0.37435832619667053,
          "482": -1.5544642210006714,
          "483": 1.3326951265335083,
          "484": -1.654544711112976,
          "485": 0.5792475342750549,
          "486": 0.38239988684654236,
          "487": 0.162908136844635,
          "488": 0.08497321605682373,
          "489": 0.6812568306922913,
          "490": -0.45734354853630066,
          "491": 0.922804057598114,
          "492": 0.16928043961524963,
          "493": -1.4172544479370117,
          "494": -1.3867470026016235,
          "495": 2.4332029819488525,
          "496": -1.7013261318206787,
          "497": -0.012211937457323074,
          "498": -1.0028544664382935,
          "499": 1.9008405208587646,
          "500": -1.0565255880355835,
          "501": -0.0183859895914793,
          "502": -2.930471658706665,
          "503": -0.7712857723236084,
          "504": 0.3585866391658783,
          "505": -0.610324501991272,
          "506": -0.0020689582452178,
          "507": -0.5920799374580383,
          "508": -1.5769740343093872,
          "509": 0.236506387591362,
          "510": 1.1666878461837769,
          "511": -0.3584105670452118,
          "512": 1.5435048341751099,
          "513": 0.36751559376716614,
          "514": 1.6350926160812378,
          "515": -0.31142884492874146,
          "516": 0.14705614745616913,
          "517": -0.23954278230667114,
          "518": 0.21247562766075134,
          "519": 1.649479627609253
        }
      },
      "forgetHidden": {
        "rows": 20,
        "columns": 20,
        "weights": {
          "0": -1.384575605392456,
          "1": -3.5269997119903564,
          "2": -0.40857747197151184,
          "3": 3.1611030101776123,
          "4": -2.5809717178344727,
          "5": -0.9393654465675354,
          "6": 3.2160701751708984,
          "7": 0.502715528011322,
          "8": 0.3420901894569397,
          "9": 2.396315813064575,
          "10": -1.000972867012024,
          "11": -0.3653481900691986,
          "12": -2.9695370197296143,
          "13": -0.9709399342536926,
          "14": -1.316679835319519,
          "15": -0.019153742119669914,
          "16": 3.451389789581299,
          "17": -2.4291110038757324,
          "18": 0.2019571214914322,
          "19": 0.05779640004038811,
          "20": 8.076827049255371,
          "21": -4.387556552886963,
          "22": -5.107682228088379,
          "23": 9.977224349975586,
          "24": 9.505931854248047,
          "25": 1.5024828910827637,
          "26": 6.733183860778809,
          "27": 6.586114406585693,
          "28": 6.406642913818359,
          "29": 7.471431255340576,
          "30": -0.35808756947517395,
          "31": -8.223014831542969,
          "32": -4.272918224334717,
          "33": 1.1875218152999878,
          "34": -0.6131117939949036,
          "35": -5.306061267852783,
          "36": 2.6606504917144775,
          "37": -1.9643821716308594,
          "38": 8.036725997924805,
          "39": 9.092201232910156,
          "40": 3.4649922847747803,
          "41": -2.2035956382751465,
          "42": -1.4920358657836914,
          "43": -4.156351566314697,
          "44": -3.9751007556915283,
          "45": -0.1587124615907669,
          "46": -2.019979476928711,
          "47": 2.146559000015259,
          "48": 0.31508874893188477,
          "49": -0.9881284832954407,
          "50": -13.928679466247559,
          "51": -0.7462813854217529,
          "52": -3.7247257232666016,
          "53": -0.18018712103366852,
          "54": -3.1059024333953857,
          "55": -1.8255887031555176,
          "56": 6.374220371246338,
          "57": -1.8140708208084106,
          "58": -1.5591316223144531,
          "59": 0.3770657181739807,
          "60": 1.7508553266525269,
          "61": -0.8488357067108154,
          "62": -1.3816027641296387,
          "63": -1.9157847166061401,
          "64": -2.626408100128174,
          "65": -0.8550328612327576,
          "66": -2.386371374130249,
          "67": -0.509714663028717,
          "68": -1.7482028007507324,
          "69": 0.31040531396865845,
          "70": 3.0482139587402344,
          "71": 1.9460159540176392,
          "72": -0.8838798403739929,
          "73": -2.3606719970703125,
          "74": -0.48078370094299316,
          "75": -0.08300717175006866,
          "76": 0.7794545292854309,
          "77": -1.0739991664886475,
          "78": 0.08366359770298004,
          "79": -1.0984017848968506,
          "80": -3.3871641159057617,
          "81": -0.7629004716873169,
          "82": 2.6803760528564453,
          "83": -4.425650596618652,
          "84": -2.305706024169922,
          "85": 9.457510948181152,
          "86": -1.3669978380203247,
          "87": -1.91399347782135,
          "88": -0.3062141537666321,
          "89": -2.2309091091156006,
          "90": -5.015049457550049,
          "91": 4.807762145996094,
          "92": -2.0294277667999268,
          "93": -3.086346387863159,
          "94": -2.1407511234283447,
          "95": -6.664408206939697,
          "96": 1.5221247673034668,
          "97": -1.6000548601150513,
          "98": -1.177093267440796,
          "99": -2.2338144779205322,
          "100": 2.0455379486083984,
          "101": 0.6926305890083313,
          "102": 1.894282579421997,
          "103": -1.3321362733840942,
          "104": -2.8500711917877197,
          "105": -0.14295369386672974,
          "106": 0.12969259917736053,
          "107": 0.9299543499946594,
          "108": -0.418159157037735,
          "109": -0.08241119980812073,
          "110": -0.4665689170360565,
          "111": 0.49950098991394043,
          "112": 2.649251699447632,
          "113": -0.6223370432853699,
          "114": -1.0799182653427124,
          "115": -0.02346665970981121,
          "116": -0.8524771332740784,
          "117": -3.3863723278045654,
          "118": -2.223285675048828,
          "119": -0.8666396141052246,
          "120": 0.14528872072696686,
          "121": -1.8963731527328491,
          "122": 0.003964220639318228,
          "123": 2.2658417224884033,
          "124": 1.045166254043579,
          "125": -1.5764671564102173,
          "126": 1.7576996088027954,
          "127": -0.598095715045929,
          "128": 0.07261981815099716,
          "129": 1.035478115081787,
          "130": -0.6135847568511963,
          "131": -1.823435664176941,
          "132": -0.5345739126205444,
          "133": 0.7868733406066895,
          "134": -1.0940144062042236,
          "135": 0.5153174996376038,
          "136": 0.5083889961242676,
          "137": -2.7820053100585938,
          "138": 0.4130059778690338,
          "139": -0.12191622704267502,
          "140": 0.7779459953308105,
          "141": -2.124450206756592,
          "142": -1.3394685983657837,
          "143": 3.9819495677948,
          "144": 2.525519847869873,
          "145": -1.4570555686950684,
          "146": 1.1162331104278564,
          "147": -2.299928903579712,
          "148": -0.575999915599823,
          "149": 1.3819537162780762,
          "150": -5.790282249450684,
          "151": -0.2397788166999817,
          "152": 0.37529635429382324,
          "153": 1.0883468389511108,
          "154": -0.6904652118682861,
          "155": -2.421929121017456,
          "156": 1.5458917617797852,
          "157": 1.7068607807159424,
          "158": -0.3592436909675598,
          "159": 2.383547306060791,
          "160": -1.1142948865890503,
          "161": -1.310420036315918,
          "162": -0.6706429123878479,
          "163": 2.324113607406616,
          "164": -0.7261567711830139,
          "165": 1.8062666654586792,
          "166": -3.160292625427246,
          "167": -2.533503770828247,
          "168": -3.2620346546173096,
          "169": 2.5608208179473877,
          "170": 0.30104291439056396,
          "171": 0.32770901918411255,
          "172": 0.27608349919319153,
          "173": 2.456216335296631,
          "174": -2.114060163497925,
          "175": 0.43391233682632446,
          "176": -3.5522332191467285,
          "177": -1.361971139907837,
          "178": 1.0499489307403564,
          "179": 0.035554446280002594,
          "180": -0.3938212990760803,
          "181": -1.176833987236023,
          "182": 0.22009891271591187,
          "183": -1.7964009046554565,
          "184": -1.5958120822906494,
          "185": 0.10923822969198227,
          "186": 0.17555178701877594,
          "187": 1.0177807807922363,
          "188": 0.0890578180551529,
          "189": -0.022640429437160492,
          "190": 2.3539087772369385,
          "191": 0.4156792461872101,
          "192": -0.0526331327855587,
          "193": -4.070540428161621,
          "194": -0.9678929448127747,
          "195": -1.2863101959228516,
          "196": 1.2926974296569824,
          "197": -0.7031036019325256,
          "198": 1.734743356704712,
          "199": -0.5595706701278687,
          "200": 2.244011402130127,
          "201": 6.282533168792725,
          "202": 4.590171813964844,
          "203": -2.541599750518799,
          "204": -1.34315025806427,
          "205": 3.472526788711548,
          "206": 2.0336737632751465,
          "207": -0.003006612416356802,
          "208": 0.8089030981063843,
          "209": 5.723974227905273,
          "210": 1.2889450788497925,
          "211": -1.1150717735290527,
          "212": 1.0937248468399048,
          "213": -3.1184005737304688,
          "214": -8.470046043395996,
          "215": -3.507394790649414,
          "216": -0.5949198603630066,
          "217": -2.993849277496338,
          "218": -2.572169303894043,
          "219": 0.9549241662025452,
          "220": -0.7237625122070312,
          "221": -0.37296685576438904,
          "222": 0.2767468988895416,
          "223": -0.24318517744541168,
          "224": 0.6713240146636963,
          "225": 0.23557770252227783,
          "226": 0.08181846141815186,
          "227": -0.37963730096817017,
          "228": -0.5809746980667114,
          "229": 0.18710483610630035,
          "230": -0.7301038503646851,
          "231": -1.2306309938430786,
          "232": 0.9056273102760315,
          "233": 0.7291109561920166,
          "234": -1.567262887954712,
          "235": 1.047731876373291,
          "236": 0.4115856885910034,
          "237": -0.9195473194122314,
          "238": -0.2591591477394104,
          "239": 0.02579348348081112,
          "240": -3.292038679122925,
          "241": -0.08193223923444748,
          "242": -3.9276206493377686,
          "243": 2.253312110900879,
          "244": -4.0401153564453125,
          "245": -0.489982932806015,
          "246": -5.203968048095703,
          "247": -4.016576290130615,
          "248": -6.246861934661865,
          "249": 3.813357353210449,
          "250": -0.35725292563438416,
          "251": 1.4263415336608887,
          "252": -1.6388956308364868,
          "253": -1.3252286911010742,
          "254": -2.9943511486053467,
          "255": 0.4800259470939636,
          "256": 3.6244237422943115,
          "257": 4.158295154571533,
          "258": 0.1907065063714981,
          "259": 1.3637498617172241,
          "260": 4.427657604217529,
          "261": 1.164957880973816,
          "262": -7.8699727058410645,
          "263": 3.7302043437957764,
          "264": 3.247183322906494,
          "265": -0.5217301249504089,
          "266": -0.7286242246627808,
          "267": -2.2471542358398438,
          "268": -5.13743257522583,
          "269": 5.325037479400635,
          "270": -1.3497694730758667,
          "271": -2.136303663253784,
          "272": 1.9370468854904175,
          "273": 2.680626392364502,
          "274": 4.734603404998779,
          "275": -8.181795120239258,
          "276": -2.049182891845703,
          "277": 1.2492132186889648,
          "278": 1.598057508468628,
          "279": 1.0304405689239502,
          "280": 1.2270644903182983,
          "281": -1.4363641738891602,
          "282": -0.7889295816421509,
          "283": -2.9657907485961914,
          "284": -0.5898889303207397,
          "285": -2.191481351852417,
          "286": 1.577817440032959,
          "287": 1.6981357336044312,
          "288": 0.9818981885910034,
          "289": -2.6495704650878906,
          "290": -1.0667002201080322,
          "291": 1.0616669654846191,
          "292": -0.22433291375637054,
          "293": -2.3492331504821777,
          "294": 3.1546828746795654,
          "295": -3.433037519454956,
          "296": -0.6819617748260498,
          "297": -0.40596550703048706,
          "298": 3.8871262073516846,
          "299": -0.05919422581791878,
          "300": 4.351936340332031,
          "301": 0.19235903024673462,
          "302": 2.1150636672973633,
          "303": -0.7544870376586914,
          "304": -0.6155164837837219,
          "305": 2.8179218769073486,
          "306": -1.3659255504608154,
          "307": -1.3526346683502197,
          "308": -0.973437488079071,
          "309": 1.4850847721099854,
          "310": -1.7806274890899658,
          "311": 2.8157742023468018,
          "312": -1.2344945669174194,
          "313": -3.9164228439331055,
          "314": 3.628037691116333,
          "315": -1.309497594833374,
          "316": -3.407599925994873,
          "317": -0.04734417051076889,
          "318": 5.736753940582275,
          "319": -2.1787242889404297,
          "320": -3.379189968109131,
          "321": 4.120365619659424,
          "322": -2.909087896347046,
          "323": 0.35357627272605896,
          "324": -0.11362695693969727,
          "325": 3.672987461090088,
          "326": -1.6614331007003784,
          "327": 0.027142677456140518,
          "328": -2.473059892654419,
          "329": 0.5746158361434937,
          "330": 1.819510579109192,
          "331": -1.3340201377868652,
          "332": 1.1611287593841553,
          "333": -1.4061475992202759,
          "334": -2.238891839981079,
          "335": 4.35371208190918,
          "336": -6.091114521026611,
          "337": 5.580145835876465,
          "338": -2.947293519973755,
          "339": -0.4278911352157593,
          "340": 1.1599324941635132,
          "341": 2.401705741882324,
          "342": -1.123360276222229,
          "343": -2.8359556198120117,
          "344": 2.0647642612457275,
          "345": 1.08046555519104,
          "346": 1.0773943662643433,
          "347": 0.18411517143249512,
          "348": 1.1857558488845825,
          "349": 1.863479495048523,
          "350": -1.2198623418807983,
          "351": -0.081035315990448,
          "352": 0.4010496437549591,
          "353": 0.7591440677642822,
          "354": 2.93857479095459,
          "355": 0.1037839725613594,
          "356": 0.1851847916841507,
          "357": 0.7102521657943726,
          "358": 5.232063293457031,
          "359": 2.474820375442505,
          "360": -10.714527130126953,
          "361": 0.9486330151557922,
          "362": -0.10095719248056412,
          "363": -4.318758487701416,
          "364": 1.1846696138381958,
          "365": -7.979215145111084,
          "366": 9.820122718811035,
          "367": -1.542472004890442,
          "368": -3.4529733657836914,
          "369": -0.31054964661598206,
          "370": 2.4744856357574463,
          "371": -1.822502613067627,
          "372": 1.5977181196212769,
          "373": -1.8789807558059692,
          "374": 7.912407875061035,
          "375": 6.759443283081055,
          "376": 6.059776782989502,
          "377": 2.9511382579803467,
          "378": -2.8373987674713135,
          "379": 0.02052910067141056,
          "380": 1.629590630531311,
          "381": -0.40310096740722656,
          "382": 0.49498316645622253,
          "383": 1.4606109857559204,
          "384": 0.15680621564388275,
          "385": -0.8529839515686035,
          "386": 0.020387936383485794,
          "387": -0.8277437686920166,
          "388": -0.8562017679214478,
          "389": 1.334736943244934,
          "390": -0.3613101840019226,
          "391": -0.32489705085754395,
          "392": -0.07695593684911728,
          "393": -0.7560024857521057,
          "394": -0.3936348855495453,
          "395": -0.7063159942626953,
          "396": 0.10478764027357101,
          "397": -1.2571964263916016,
          "398": 1.083682894706726,
          "399": 0.2462729960680008
        }
      },
      "forgetBias": {
        "rows": 20,
        "columns": 1,
        "weights": {
          "0": 0,
          "1": 0,
          "2": 0,
          "3": 0,
          "4": 0,
          "5": 0,
          "6": 0,
          "7": 0,
          "8": 0,
          "9": 0,
          "10": 0,
          "11": 0,
          "12": 0,
          "13": 0,
          "14": 0,
          "15": 0,
          "16": 0,
          "17": 0,
          "18": 0,
          "19": 0
        }
      },
      "outputMatrix": {
        "rows": 20,
        "columns": 26,
        "weights": {
          "0": -0.12244733422994614,
          "1": -0.5158410668373108,
          "2": 2.170109987258911,
          "3": -1.1378751993179321,
          "4": 1.7239381074905396,
          "5": -1.5138773918151855,
          "6": 0.8566225171089172,
          "7": -0.04684393107891083,
          "8": -2.1937265396118164,
          "9": -0.7525435090065002,
          "10": 0.42491763830184937,
          "11": 1.359212875366211,
          "12": 0.5359922647476196,
          "13": 0.13060617446899414,
          "14": 1.2686501741409302,
          "15": -0.7779019474983215,
          "16": -0.059384096413850784,
          "17": -0.884817898273468,
          "18": -2.2459986209869385,
          "19": -0.007004903629422188,
          "20": -0.14177435636520386,
          "21": 0.6730369925498962,
          "22": 0.28033921122550964,
          "23": 0.7932881116867065,
          "24": 0.610547661781311,
          "25": -0.8893314599990845,
          "26": -0.02119162678718567,
          "27": 0.6975610852241516,
          "28": 1.5897272825241089,
          "29": 6.885631084442139,
          "30": -0.45782533288002014,
          "31": 0.4416598081588745,
          "32": -1.4921153783798218,
          "33": 1.0397719144821167,
          "34": -3.2198002338409424,
          "35": 1.369869351387024,
          "36": -2.523651361465454,
          "37": -0.11649680137634277,
          "38": 3.6645843982696533,
          "39": 1.3352775573730469,
          "40": 0.982749342918396,
          "41": 2.991598129272461,
          "42": 0.11093460768461227,
